Language model created by QuickLM on Tue Dec 13 14:05:27 EST 2016
Copyright (c) 1996-2010 Carnegie Mellon University and Alexander I. Rudnicky

The model is in standard ARPA format, designed by Doug Paul while he was at MITRE.

The code that was used to produce this language model is available in Open Source.
Please visit http://www.speech.cs.cmu.edu/tools/ for more information

The (fixed) discount mass is 0.5. The backoffs are computed using the ratio method.
This model based on a corpus of 26 sentences and 14 words

\data\
ngram 1=14
ngram 2=38
ngram 3=56

\1-grams:
-1.7093 1 -0.2545
-1.7093 2 -0.2545
-1.7093 3 -0.2545
-1.7093 4 -0.2545
-1.7093 5 -0.2545
-0.9933 </s> -0.3010
-0.9933 <s> -0.2545
-1.7093 ALPHA -0.2564
-1.0103 ATTACK -0.2564
-1.7093 BRAVO -0.2564
-1.7093 CHARLIE -0.2564
-1.7093 DELTA -0.2564
-1.7093 ECHO -0.2564
-2.4082 STOP -0.2545

\2-grams:
-0.3010 1 </s> -0.3010
-0.3010 2 </s> -0.3010
-0.3010 3 </s> -0.3010
-0.3010 4 </s> -0.3010
-0.3010 5 </s> -0.3010
-0.3181 <s> ATTACK 0.0000
-1.7160 <s> STOP 0.0000
-1.0000 ALPHA 1 0.0000
-1.0000 ALPHA 2 0.0000
-1.0000 ALPHA 3 0.0000
-1.0000 ALPHA 4 0.0000
-1.0000 ALPHA 5 0.0000
-1.0000 ATTACK ALPHA 0.0000
-1.0000 ATTACK BRAVO 0.0000
-1.0000 ATTACK CHARLIE 0.0000
-1.0000 ATTACK DELTA 0.0000
-1.0000 ATTACK ECHO 0.0000
-1.0000 BRAVO 1 0.0000
-1.0000 BRAVO 2 0.0000
-1.0000 BRAVO 3 0.0000
-1.0000 BRAVO 4 0.0000
-1.0000 BRAVO 5 0.0000
-1.0000 CHARLIE 1 0.0000
-1.0000 CHARLIE 2 0.0000
-1.0000 CHARLIE 3 0.0000
-1.0000 CHARLIE 4 0.0000
-1.0000 CHARLIE 5 0.0000
-1.0000 DELTA 1 0.0000
-1.0000 DELTA 2 0.0000
-1.0000 DELTA 3 0.0000
-1.0000 DELTA 4 0.0000
-1.0000 DELTA 5 0.0000
-1.0000 ECHO 1 0.0000
-1.0000 ECHO 2 0.0000
-1.0000 ECHO 3 0.0000
-1.0000 ECHO 4 0.0000
-1.0000 ECHO 5 0.0000
-0.3010 STOP </s> -0.3010

\3-grams:
-1.0000 <s> ATTACK ALPHA
-1.0000 <s> ATTACK BRAVO
-1.0000 <s> ATTACK CHARLIE
-1.0000 <s> ATTACK DELTA
-1.0000 <s> ATTACK ECHO
-0.3010 <s> STOP </s>
-0.3010 ALPHA 1 </s>
-0.3010 ALPHA 2 </s>
-0.3010 ALPHA 3 </s>
-0.3010 ALPHA 4 </s>
-0.3010 ALPHA 5 </s>
-1.0000 ATTACK ALPHA 1
-1.0000 ATTACK ALPHA 2
-1.0000 ATTACK ALPHA 3
-1.0000 ATTACK ALPHA 4
-1.0000 ATTACK ALPHA 5
-1.0000 ATTACK BRAVO 1
-1.0000 ATTACK BRAVO 2
-1.0000 ATTACK BRAVO 3
-1.0000 ATTACK BRAVO 4
-1.0000 ATTACK BRAVO 5
-1.0000 ATTACK CHARLIE 1
-1.0000 ATTACK CHARLIE 2
-1.0000 ATTACK CHARLIE 3
-1.0000 ATTACK CHARLIE 4
-1.0000 ATTACK CHARLIE 5
-1.0000 ATTACK DELTA 1
-1.0000 ATTACK DELTA 2
-1.0000 ATTACK DELTA 3
-1.0000 ATTACK DELTA 4
-1.0000 ATTACK DELTA 5
-1.0000 ATTACK ECHO 1
-1.0000 ATTACK ECHO 2
-1.0000 ATTACK ECHO 3
-1.0000 ATTACK ECHO 4
-1.0000 ATTACK ECHO 5
-0.3010 BRAVO 1 </s>
-0.3010 BRAVO 2 </s>
-0.3010 BRAVO 3 </s>
-0.3010 BRAVO 4 </s>
-0.3010 BRAVO 5 </s>
-0.3010 CHARLIE 1 </s>
-0.3010 CHARLIE 2 </s>
-0.3010 CHARLIE 3 </s>
-0.3010 CHARLIE 4 </s>
-0.3010 CHARLIE 5 </s>
-0.3010 DELTA 1 </s>
-0.3010 DELTA 2 </s>
-0.3010 DELTA 3 </s>
-0.3010 DELTA 4 </s>
-0.3010 DELTA 5 </s>
-0.3010 ECHO 1 </s>
-0.3010 ECHO 2 </s>
-0.3010 ECHO 3 </s>
-0.3010 ECHO 4 </s>
-0.3010 ECHO 5 </s>

\end\
